person -0.079901 -0.091993 -0.46233 0.29856 0.78472 0.071502 1.5598 -0.36813 -0.8971 0.11984 -0.58358 0.56479 -4.8192 0.41785 -0.52116 1.0823 0.93162 -0.15663 0.28685 -0.84895 1.3194 0.36093 -0.38828 -0.17877 -0.88096
male -0.69132 -0.24751 -0.091082 -0.50218 1.1348 -0.84616 0.87484 0.26716 -0.11469 0.62137 -0.057546 -1.7072 -2.8744 0.45555 -0.73985 1.4007 0.08409 0.001865 -0.38978 -0.24283 0.29985 1.0122 -0.05706 -1.3766 -0.7072
bread -0.54251 0.69509 0.19869 1.209 -0.2548 0.52836 0.65335 -2.016 0.14886 0.66374 0.99783 -0.54864 -3.4646 -0.9705 -0.17878 -0.75594 1.3963 -0.87496 0.080796 0.83884 -0.10375 0.73724 -0.19575 0.69461 1.3188
taco -0.85358 0.48182 0.75138 0.60966 0.051752 0.34644 0.60823 -0.86045 -0.11156 -0.04133 0.51532 -1.6725 -3.1293 -1.1278 1.1424 -0.17594 1.3376 -0.8941 0.1492 -0.019537 0.076577 0.11444 0.52 0.044374 1.2705
chicken -0.85978 0.090913 0.50242 0.94303 -0.17259 0.58412 1.0338 -1.1468 0.24887 0.20635 1.0394 -0.57993 -3.3098 -1.191 0.23619 -1.2423 2.135 -1.4737 -0.20724 0.66473 0.0066902 0.65971 -0.18813 0.24023 1.645
at -1.0206 -0.12834 1.0937 -0.74474 -0.51548 -0.50633 1.0489 -0.18161 0.86851 0.38252 -0.34213 -0.079467 -4.9305 0.91787 0.046519 -0.83393 0.77692 -0.70471 -0.99819 -0.73907 -0.57397 -0.2561 -0.24104 -0.58805 0.48638
on 0.21228 -0.2435 -0.57013 0.33778 -0.86072 -0.1771 0.86891 -0.11103 0.53467 -0.0036497 0.11068 0.44655 -5.6486 -0.033026 0.36245 0.74407 -0.16614 -0.61851 -1.8327 0.51321 -0.31933 -0.68438 0.59145 -0.55647 -0.31049
you -0.41586 0.32548 -0.087621 0.2018 -0.80017 -0.34418 2.1431 0.37188 -0.9409 0.24283 -0.86396 0.63858 -6.0171 -0.54081 -0.43305 0.095707 0.37971 -1.1432 0.11382 -0.38361 0.41758 0.081476 -0.02659 0.75438 -0.77178