people 0.61531 0.40895 -0.34224 0.21094 -0.046403 0.29744 1.9485 -0.91247 -0.85772 0.57293 -0.99537 -0.15858 -5.4328 0.11578 -0.27031 0.35207 0.16624 -0.91364 0.6933 -0.65035 0.77353 -0.087782 -0.43228 -0.99982 -0.68077
children -0.54012 0.29523 -0.12819 0.42327 0.62131 -0.7132 1.1946 -1.1596 -0.32248 0.43576 0.072544 -0.16153 -4.0564 0.71535 -0.59013 -0.60998 0.44938 0.017733 1.0783 -0.93363 0.21728 -0.0163 -1.2319 -1.5189 0.44527
adult -0.15841 -0.058828 -0.21707 -0.90864 2.059 -0.38698 1.0115 -0.90804 -0.031294 -0.10268 -0.38578 -0.02183 -2.7716 -0.53145 -1.0094 0.23501 0.77971 -0.36274 0.56646 0.063235 -0.36544 -0.31661 -0.55696 -1.37 0.40235
animal -0.26053 -0.85728 -0.43679 0.66746 1.1192 -0.088358 1.0284 0.049655 0.11789 -0.070189 0.64676 -1.9001 -3.1175 -0.76012 0.41025 0.26773 0.3638 0.14643 0.59874 -0.21139 0.25921 0.52024 -0.050446 -1.1284 0.75255
dog -1.242 -0.3598 0.57285 0.36675 0.60021 -0.18898 1.2729 -0.36921 0.08908 0.40339 0.2513 -0.25548 -3.9209 -1.11 -0.21308 -0.23846 0.95322 -0.5275 -0.00078049 -0.35771 0.55582 0.77869 0.46874 -0.77803 0.78378
cat -0.96419 -0.60978 0.67449 0.35113 0.41317 -0.21241 1.3796 0.12854 0.31567 0.66325 0.3391 -0.18934 -3.325 -1.1491 -0.4129 0.2195 0.8706 -0.50616 -0.12781 -0.066965 0.065761 0.43927 0.1758 -0.56058 0.13529
duck -0.27578 -0.13376 0.44779 0.4833 -0.29992 -0.19295 1.3772 -0.73509 0.094343 0.17589 0.48979 0.23234 -2.741 -1.1054 0.24278 0.22326 0.72966 -0.9481 -0.011162 0.48359 -0.012359 1.1888 0.68096 -1.0248 0.64236
spicy -0.61399 -0.27594 0.38994 0.39961 0.10254 1.2101 1.0591 -1.4268 0.12668 -0.41443 0.47751 -0.4208 -1.9767 -1.8102 0.2 -1.2078 1.9823 -1.1419 0.46448 0.91148 -0.17679 0.42525 -0.68601 0.23582 0.9753
roast -1.2167 0.83854 0.028708 0.95238 -0.17402 0.2529 0.66659 -2.1124 -0.1394 -0.76541 0.80501 -0.10123 -2.322 -0.77049 0.56088 -0.73897 1.298 -1.1709 -0.68141 0.34246 -0.23426 0.97323 -0.29618 0.30382 1.6926
over 0.55093 0.34308 -0.053217 0.033585 -0.59331 0.22927 0.10153 -0.59763 -1.0271 0.67239 0.18758 1.2714 -5.1647 0.18449 0.38389 0.73554 0.3831 0.52221 -0.78766 -0.45393 -0.77659 0.22648 0.18797 -0.46645 0.39237
the -0.010167 0.020194 0.21473 0.17289 -0.43659 -0.14687 1.8429 -0.15753 0.18187 -0.31782 0.06839 0.51776 -6.3371 0.48066 0.13777 -0.48568 0.39 -0.0019506 -0.10218 0.21262 -0.86146 0.17263 0.18783 -0.8425 -0.31208
cake -1.0327 0.06449 0.807 0.89793 0.055082 0.49512 1.4572 -0.53937 0.073718 0.11263 0.9535 -0.22359 -3.2569 -1.0959 -0.24933 0.15011 1.5693 -1.3038 -0.43958 0.86215 -0.90223 0.25763 -0.58111 1.1424 0.80876
cheese -0.61755 0.028026 0.2717 0.8742 -0.38979 1.0506 1.003 -1.6137 0.037018 0.52155 1.319 -0.63204 -3.2828 -1.6051 0.3881 -0.6907 1.7734 -1.4834 -0.23835 0.94809 -0.43051 0.781 -0.40867 0.57435 1.1595
milk -0.52575 -0.229 0.31721 1.1202 -0.11358 0.43399 0.94626 -1.4063 0.27702 0.48609 0.88023 -0.94472 -3.2762 -1.2963 -0.0026027 -0.43238 1.0814 -0.50706 0.4295 0.37386 -0.67564 0.44146 0.082967 1.0749 0.84617
cow -0.70113 -0.068989 0.14251 0.83772 0.12793 0.45621 0.96044 -0.40393 1.0045 0.87818 0.0026653 0.17196 -2.5114 -0.53574 0.083682 -0.027987 1.1578 -0.64023 0.20629 0.57909 0.10525 1.7612 -0.20406 -0.10141 0.022406
around -0.85139 0.17936 0.94352 0.24877 -0.45886 0.75664 0.87669 -0.91907 -0.17499 0.74976 -0.69619 0.51807 -4.9989 0.4084 -0.29264 0.60232 -0.10882 -0.95803 -0.072445 -0.70891 -0.09622 -0.40839 0.83019 -0.79145 -0.024732
to 0.28228 0.019558 0.11509 -0.39242 -1.0503 -0.54278 1.1357 -0.34251 0.80636 -0.47359 -0.77194 -0.73689 -6.2619 -0.34902 -0.35532 -0.60148 -0.054534 -0.67057 -0.39972 -1.324 -0.43765 0.30045 0.2143 0.25422 -0.26674
with -0.9476 0.32533 0.23967 0.29609 -0.098118 -0.10892 1.3503 -0.014157 0.15739 0.13604 -0.06848 0.68701 -5.6666 -0.41398 0.22936 -0.3325 0.49592 -0.74203 -0.032459 0.40253 -1.0907 -0.11469 -0.25527 -0.40069 -0.47669
in -0.32929 -0.16037 0.10785 -0.3961 -0.48827 -0.17528 0.23056 -0.49115 -0.065798 0.84382 0.38091 0.46377 -5.9545 0.57595 -0.18242 0.36494 -0.0042541 0.96687 -1.5674 -0.40454 -0.79557 -0.0050535 0.021972 -0.73638 0.65277
me 0.58866 0.0060408 -0.22022 1.0119 -0.7583 0.12081 -0.025355 1.596 -1.521 -1.1867 -0.42468 -2.0128 -5.3977 -1.2343 0.17889 1.3491 -0.011538 -0.063358 -0.18676 -0.18863 0.81819 -0.33465 1.6392 1.4183 0.16919
they 0.55065 0.65401 -0.019103 -0.56375 -0.58273 0.24631 1.4212 -1.0809 -0.46739 0.23774 -0.032032 0.53742 -6.0165 -0.065557 -0.59013 0.52498 0.14897 -0.83725 0.61225 -0.68926 0.69384 0.67523 0.18845 -0.12302 -0.30455
without -0.29748 0.55611 -0.090369 0.62711 -0.094778 0.10076 1.5673 -0.84443 -0.5183 0.45118 -0.024614 0.31293 -4.7617 -0.39703 0.39149 0.58412 -0.38698 -0.0050923 0.49155 -0.73857 -0.809 0.17763 -0.17456 0.090621 -0.73461
badger -0.47958 0.23854 -1.3389 -0.45299 -0.4708 -1.1692 0.54083 -1.6279 0.24471 -0.29904 0.73531 -0.16963 -1.734 -0.69494 0.86484 -0.98257 0.4175 -0.66293 0.43509 0.28013 -0.0037665 1.5716 -0.017186 -1.0092 0.14632